{
    "equation": "-1.8*x*x+2*x+3.2",
    "network_weights": [
        0.4757419526576996,
        -0.5517444610595703,
        0.09690666198730469,
        -0.9697189331054688,
        -0.5090746879577637,
        0.1875849962234497,
        0.45894360542297363,
        -0.1189037561416626,
        -0.007101621478796005,
        0.3001042902469635,
        -0.14311076700687408,
        -0.20568187534809113,
        -0.11012431979179382,
        0.22062090039253235,
        0.1982739269733429,
        -0.10660699009895325,
        0.166963130235672,
        -0.019070535898208618,
        0.14072367548942566,
        0.0646061897277832,
        0.3028058111667633,
        0.07047641277313232,
        0.19808295369148254,
        -0.22289393842220306,
        0.2677765488624573,
        -0.1917538344860077,
        -0.20849034190177917,
        0.07370220869779587,
        -0.040276020765304565,
        -0.1443507969379425,
        -0.07888743281364441,
        -0.1615571230649948,
        0.28448131680488586,
        -0.19367630779743195,
        0.21996214985847473,
        0.13944724202156067,
        0.024709608405828476,
        -0.2609318196773529,
        -0.09991222620010376,
        -0.14153367280960083,
        -0.039123594760894775,
        0.07917267084121704,
        -0.17179135978221893,
        -0.07400216907262802,
        -0.2605420649051666,
        0.2682771384716034,
        -0.1535550057888031,
        -0.2797604501247406,
        -0.3284316956996918,
        -0.0491771399974823,
        -0.09941989183425903,
        0.1908196657896042,
        -0.06835266947746277,
        0.10853192210197449,
        -0.19773362576961517,
        -0.03145390748977661,
        0.27388691902160645,
        0.01564115285873413,
        0.16052982211112976,
        -0.24958287179470062,
        0.22991541028022766,
        -0.21181462705135345,
        -0.3042300343513489,
        -0.29938992857933044,
        0.09368649125099182,
        0.31433603167533875,
        -0.09921979904174805,
        0.1471470296382904,
        -0.026560932397842407,
        -0.1332285851240158,
        0.2432517111301422,
        0.22239351272583008,
        -0.1668548882007599,
        -0.09807933121919632,
        0.08512263000011444,
        -0.11168935894966125,
        0.015180905349552631,
        0.019695479422807693,
        0.25157302618026733,
        0.12656721472740173,
        0.27183741331100464,
        0.056068018078804016,
        -0.10800159722566605,
        0.23863908648490906,
        0.2597082853317261,
        -0.16584773361682892,
        0.0753602385520935,
        -0.35110005736351013,
        0.038420140743255615,
        -0.33207887411117554,
        0.15965750813484192,
        -0.3229844570159912,
        0.1332765519618988,
        0.1794416606426239,
        -0.18638885021209717,
        -0.291866272687912,
        -0.18175263702869415,
        -0.3300713896751404,
        0.07414564490318298,
        0.03375830128788948,
        0.12053102254867554,
        0.047726262360811234,
        -0.0059114075265824795,
        -0.33277642726898193,
        0.1830725222826004,
        0.1951652467250824,
        0.3516644537448883,
        -0.05394631624221802,
        -0.2398253083229065,
        -0.2968962490558624,
        -0.01015433669090271,
        0.07043814659118652,
        0.32712361216545105,
        -0.3026565909385681,
        0.15756544470787048,
        0.1755964457988739,
        -0.03428792953491211,
        -0.18141596019268036,
        0.18935325741767883,
        -0.03472408652305603,
        0.21768298745155334,
        0.14989447593688965,
        0.21057173609733582,
        0.03447869420051575,
        -0.02281045913696289,
        -0.2676490247249603,
        0.2683955132961273,
        -0.3159237504005432
    ],
    "train_losses": [
        8.56738254763517
    ],
    "validation_losses": [
        8.30792659819583
    ]
}