{
    "equation": "+2.8*x*x+2.9*x-2.8",
    "network_weights": [
        0.32995498180389404,
        -0.7042507529258728,
        -0.7373340129852295,
        0.6274710893630981,
        -0.0490107536315918,
        0.11022627353668213,
        -0.7859893441200256,
        0.12269692122936249,
        0.13138926029205322,
        0.2786734104156494,
        -0.04760843887925148,
        0.06810867786407471,
        -0.2613416314125061,
        0.09021732211112976,
        -0.2634369134902954,
        0.12546375393867493,
        -0.18356208503246307,
        -0.32033658027648926,
        -0.10133430361747742,
        0.09470197558403015,
        0.23965385556221008,
        0.11024549603462219,
        0.059452176094055176,
        0.16554710268974304,
        -0.12970860302448273,
        -0.20273248851299286,
        0.009108930826187134,
        0.012622475624084473,
        0.16644272208213806,
        -0.04094013571739197,
        0.15482202172279358,
        0.15915992856025696,
        -0.16562430560588837,
        -0.022318389266729355,
        0.15643447637557983,
        -0.04927930235862732,
        -0.10703815519809723,
        -0.2393980175256729,
        0.23444223403930664,
        -0.19980528950691223,
        -0.3363734781742096,
        0.20796887576580048,
        0.25371024012565613,
        -0.13661007583141327,
        -0.10012945532798767,
        -0.3314772844314575,
        0.030685193836688995,
        0.36487123370170593,
        0.3373853862285614,
        -0.1492699384689331,
        0.05992681905627251,
        0.12598523497581482,
        0.35237452387809753,
        -0.12303748726844788,
        0.2956840395927429,
        0.2705518901348114,
        -0.012850165367126465,
        0.12724049389362335,
        0.008512470871210098,
        0.25770702958106995,
        -0.15190714597702026,
        -0.02976951003074646,
        -0.03242795914411545,
        0.07134249806404114,
        -0.3123311400413513,
        0.06850698590278625,
        -0.07018762826919556,
        -0.17280113697052002,
        -0.31044816970825195,
        -0.17897550761699677,
        -0.1252591907978058,
        -0.357688844203949,
        -0.2186938226222992,
        -0.2614312171936035,
        -0.22199973464012146,
        -0.049081575125455856,
        0.36088505387306213,
        -0.13508088886737823,
        -0.36009153723716736,
        -0.3734361529350281,
        -0.1970047503709793,
        0.02605307102203369,
        0.24551668763160706,
        -0.16860976815223694,
        -0.02177327871322632,
        -0.33946818113327026,
        0.3625842034816742,
        -0.22156453132629395,
        0.28721240162849426,
        -0.08620277047157288,
        0.08370387554168701,
        -0.2410958707332611,
        0.051878251135349274,
        0.0019816458225250244,
        0.25637945532798767,
        0.19303028285503387,
        0.12092594057321548,
        0.0954883024096489,
        -0.3339460790157318,
        0.35629382729530334,
        0.2742016017436981,
        -0.0490870475769043,
        0.17687299847602844,
        0.01281056459993124,
        0.1805443912744522,
        -0.33909299969673157,
        -0.20382298529148102,
        -0.3499341905117035,
        -0.1803532987833023,
        0.33391261100769043,
        0.38729894161224365,
        0.025577429682016373,
        -0.11463592201471329,
        0.26746854186058044,
        0.07776704430580139,
        0.36298635601997375,
        -0.12019520998001099,
        -0.1936628371477127,
        -0.09506779909133911,
        0.2782333195209503,
        -0.03290727734565735,
        -0.18145813047885895,
        0.04374033212661743,
        0.34244510531425476,
        -0.023953145369887352,
        0.3210875689983368,
        -0.28319838643074036,
        0.09652382135391235
    ],
    "train_losses": [
        7.024188048690394
    ],
    "validation_losses": [
        6.9777666913122545
    ]
}