{
    "equation": "+3.9*x*x+2.7*x+2.9",
    "network_weights": [
        0.26502570509910583,
        0.9047620296478271,
        0.16622218489646912,
        0.2944314479827881,
        0.7347921133041382,
        -0.20564472675323486,
        0.9118219017982483,
        0.46139565110206604,
        0.2561480700969696,
        0.2593937814235687,
        0.3505590856075287,
        -0.29763084650039673,
        0.2262977659702301,
        0.32704946398735046,
        -0.2901249825954437,
        -0.0008656680583953857,
        -0.28713396191596985,
        0.07165759801864624,
        -0.22042421996593475,
        -0.042307525873184204,
        0.08669525384902954,
        0.2828848958015442,
        0.14981171488761902,
        -0.12059718370437622,
        -0.2389814704656601,
        0.33792564272880554,
        0.3248555064201355,
        -0.050881654024124146,
        -0.2210605889558792,
        -0.1722683310508728,
        -0.28924113512039185,
        0.29395151138305664,
        -0.19334079325199127,
        -0.1713164746761322,
        0.15608268976211548,
        -0.15848302841186523,
        0.3419756591320038,
        -0.06820280104875565,
        -0.2934878468513489,
        0.04535038396716118,
        -0.1080959141254425,
        -0.27794182300567627,
        0.26799365878105164,
        -0.17878326773643494,
        0.07017669081687927,
        0.16026601195335388,
        -0.16053739190101624,
        -0.1679355651140213,
        -0.25926923751831055,
        -0.14843176305294037,
        -0.11699029803276062,
        -0.006270319223403931,
        -0.058538079261779785,
        0.3102320432662964,
        0.08360114693641663,
        -0.15968507528305054,
        -0.31408971548080444,
        0.27697423100471497,
        -0.05998879671096802,
        -0.07726508378982544,
        -0.15289296209812164,
        0.055328428745269775,
        0.33528873324394226,
        -0.04705241322517395,
        -0.07633703947067261,
        0.2755853831768036,
        0.3776891231536865,
        -0.2042379081249237,
        -0.14560151100158691,
        -0.06017596647143364,
        0.1872079074382782,
        -0.19557252526283264,
        -0.12674614787101746,
        0.023529469966888428,
        0.29255393147468567,
        0.12430933117866516,
        -0.3557099401950836,
        0.06024765968322754,
        -0.26223525404930115,
        0.15458407998085022,
        -0.23714280128479004,
        -0.3113848567008972,
        0.28842148184776306,
        0.30025729537010193,
        -0.32597774267196655,
        0.25754597783088684,
        -0.054932624101638794,
        -0.2941073477268219,
        -0.30304139852523804,
        0.31601759791374207,
        -0.07447859644889832,
        -0.03234633803367615,
        0.36598512530326843,
        0.0951090157032013,
        -0.33347076177597046,
        0.13672369718551636,
        0.2617737352848053,
        0.15651364624500275,
        0.15418079495429993,
        -0.16206273436546326,
        -0.06931620836257935,
        0.02064734697341919,
        -0.10138896107673645,
        -0.24255147576332092,
        -0.3317168354988098,
        0.12109842896461487,
        0.1675950586795807,
        -0.15880097448825836,
        0.08958163857460022,
        -0.26408010721206665,
        0.226036936044693,
        -0.15721479058265686,
        -0.21479040384292603,
        0.21795400977134705,
        0.31154847145080566,
        -0.22999663650989532,
        -0.23565374314785004,
        -0.09648987650871277,
        0.1316918283700943,
        -0.04428860545158386,
        0.34698227047920227,
        -0.0727728009223938,
        0.0303725004196167,
        -0.14758114516735077,
        -0.1289319097995758,
        -0.11850795149803162,
        -0.0698826014995575,
        -0.33681729435920715
    ],
    "train_losses": [
        19.698087781578746
    ],
    "validation_losses": [
        18.894381537220696
    ]
}