{
    "equation": "+4.4*x*x-4*x+2",
    "network_weights": [
        -0.4633527994155884,
        -0.399216890335083,
        0.37866368889808655,
        -0.8642995357513428,
        -0.27358120679855347,
        0.011996030807495117,
        0.14681203663349152,
        -0.01642012596130371,
        0.11093071103096008,
        -0.17353442311286926,
        -0.32200780510902405,
        0.11882578581571579,
        0.2264130562543869,
        0.01730087399482727,
        0.2058553546667099,
        0.09306600689888,
        0.30737748742103577,
        0.3456970155239105,
        0.28374192118644714,
        -0.08483726531267166,
        0.15172581374645233,
        0.08984023332595825,
        0.271740198135376,
        -0.11847074329853058,
        -0.10952603816986084,
        0.3298433721065521,
        -0.3306984007358551,
        0.2872205078601837,
        -0.18432894349098206,
        0.31707563996315,
        -0.10623746365308762,
        -0.3486045002937317,
        -0.11500239372253418,
        0.15884628891944885,
        0.18741896748542786,
        -0.05470425263047218,
        0.13072843849658966,
        0.2905288636684418,
        0.09631647914648056,
        -0.11708799004554749,
        -0.2919844388961792,
        0.21903178095817566,
        -0.0701979249715805,
        0.13206295669078827,
        0.18639206886291504,
        -0.18730130791664124,
        -0.0605001375079155,
        0.31282904744148254,
        -0.09892034530639648,
        0.18754443526268005,
        0.3203935921192169,
        0.29591551423072815,
        0.32130640745162964,
        -0.28747761249542236,
        -0.0524020791053772,
        0.28028085827827454,
        0.25658538937568665,
        0.06365564465522766,
        0.2843974530696869,
        -0.06638073921203613,
        -0.32509735226631165,
        -0.2550022006034851,
        -0.1122107207775116,
        0.12844032049179077,
        -0.2509895861148834,
        0.1484334021806717,
        0.0956086665391922,
        -0.059010643512010574,
        0.03185255452990532,
        0.14737501740455627,
        -0.09088134765625,
        -0.007377654314041138,
        -0.04524862766265869,
        0.18415549397468567,
        -0.2268391102552414,
        -0.008867233991622925,
        -0.2008761614561081,
        -0.37594687938690186,
        -0.33180302381515503,
        -0.018744558095932007,
        -0.1907608062028885,
        0.013366878032684326,
        -0.07352060079574585,
        -0.34146010875701904,
        -0.13227581977844238,
        -0.24334880709648132,
        -0.015614817850291729,
        -0.1344834566116333,
        -0.308307409286499,
        0.3218795359134674,
        0.34504178166389465,
        0.30614688992500305,
        -0.008573717437684536,
        0.22791428864002228,
        -0.24860766530036926,
        -0.26743632555007935,
        -0.09337414801120758,
        0.13567198812961578,
        0.09653422236442566,
        0.1536477506160736,
        -0.20394377410411835,
        -0.16054999828338623,
        0.17011597752571106,
        0.16758325695991516,
        0.26684823632240295,
        -0.2487335056066513,
        -0.09854808449745178,
        -0.034856587648391724,
        -0.17081868648529053,
        -0.17056888341903687,
        -0.0017042756080627441,
        0.11408188939094543,
        -0.37761396169662476,
        -0.2545502483844757,
        -0.09973378479480743,
        -0.03976770117878914,
        -0.2822302579879761,
        0.10632111132144928,
        0.06554948538541794,
        -0.36379992961883545,
        -0.25183817744255066,
        0.3494068682193756,
        -0.07929432392120361,
        -0.07910270243883133,
        0.35818520188331604,
        0.17755356431007385,
        0.01285398006439209,
        0.17897695302963257
    ],
    "train_losses": [
        17.635315817016274
    ],
    "validation_losses": [
        17.592177033785617
    ]
}