{
    "equation": "+5*x*x-1*x+1",
    "network_weights": [
        0.4600476920604706,
        0.4474279284477234,
        0.3917030990123749,
        -0.4664616286754608,
        0.21543824672698975,
        -0.13325773179531097,
        0.9573028087615967,
        0.27114337682724,
        -0.07530587911605835,
        0.3311820328235626,
        0.0004886090755462646,
        -0.06108999252319336,
        -0.06129276752471924,
        -0.2411724030971527,
        -0.19739072024822235,
        -0.07112053036689758,
        -0.34610384702682495,
        -0.27612000703811646,
        -0.337434321641922,
        -0.2715217173099518,
        -0.17556361854076385,
        -0.10377177596092224,
        0.28902193903923035,
        -0.1663707196712494,
        -0.3335854411125183,
        0.22948703169822693,
        0.15614134073257446,
        0.10378516465425491,
        0.12056177854537964,
        0.07423024624586105,
        -0.31337830424308777,
        0.2700541615486145,
        -0.3313322067260742,
        -0.17032642662525177,
        0.03067713789641857,
        0.26571354269981384,
        -0.2073863446712494,
        -0.03613932058215141,
        -0.34970539808273315,
        0.1775110960006714,
        0.20658735930919647,
        0.1832057237625122,
        -0.1208234503865242,
        0.1353316754102707,
        0.04606291651725769,
        -0.29889121651649475,
        0.2282499521970749,
        0.2883186340332031,
        -0.20960478484630585,
        -0.15623478591442108,
        0.24876318871974945,
        0.230211079120636,
        -0.04815596342086792,
        -0.15457937121391296,
        -0.13781163096427917,
        0.3263331651687622,
        0.23543056845664978,
        -0.13399431109428406,
        -0.1692122220993042,
        -0.20414769649505615,
        -0.025761961936950684,
        0.2781347334384918,
        0.24387910962104797,
        -0.23998579382896423,
        0.023129314184188843,
        0.10550794005393982,
        0.2701401710510254,
        0.036703430116176605,
        -0.27384325861930847,
        0.33223944902420044,
        0.06881445646286011,
        -0.23117998242378235,
        0.36972156167030334,
        -0.02051783725619316,
        0.07830441743135452,
        -0.12948979437351227,
        -0.24841246008872986,
        0.3776330053806305,
        0.30137118697166443,
        -0.19852875173091888,
        -0.3617861270904541,
        0.10039469599723816,
        -0.35149359703063965,
        0.12531951069831848,
        -0.17104819416999817,
        0.26008710265159607,
        0.044252485036849976,
        0.26230448484420776,
        -0.2803739607334137,
        0.31942951679229736,
        -0.00942931231111288,
        0.06209954619407654,
        -0.32408156991004944,
        -0.02711769938468933,
        -0.3237939774990082,
        0.09448134899139404,
        -0.22422575950622559,
        -0.09366604685783386,
        -0.34605515003204346,
        0.16133973002433777,
        -0.25105178356170654,
        0.2748505175113678,
        -0.2603526711463928,
        -0.26496821641921997,
        -0.19491690397262573,
        -0.09108930826187134,
        -0.18461063504219055,
        -0.08572268486022949,
        -0.3871595561504364,
        0.08690760284662247,
        -0.3662443459033966,
        0.14113830029964447,
        -0.02808430790901184,
        -0.05611681938171387,
        -0.32889410853385925,
        -0.3326353430747986,
        0.1875578761100769,
        0.2763366401195526,
        0.1176379919052124,
        0.28991076350212097,
        0.030651414766907692,
        -0.2702782154083252,
        0.04646053910255432,
        0.17182019352912903,
        0.20313355326652527,
        0.0983532965183258,
        -0.21198853850364685,
        -0.10440199077129364
    ],
    "train_losses": [
        8.388910817254835
    ],
    "validation_losses": [
        8.196327085431777
    ]
}